#ifndef PARAMETERS_H
#define PARAMETERS_H

const float W1[] = {-2.2651910782f, -0.6996037364f, 0.2696288824f, -0.0350779854f, 0.0255677104f, 0.8223638535f, -0.3907883763f, 0.0214221422f, 0.1573962420f, -0.0830446035f, 1.3526569605f, -0.3193947673f, -0.2386913896f, -0.0611393452f, -0.0185210258f, -1.9537049532f, -0.2261867374f, 0.0847455636f, 0.1975791454f, 0.2641635239f, -0.9000568986f, 0.0877828002f, -0.3414968550f, 0.1779862195f, -0.0074173184f, -1.8188755512f, 0.0241749771f, 0.1597990990f, -0.1411650330f, -0.0695342273f, 1.8263286352f, 0.0428625010f, -0.1598659456f, -0.1038161442f, -0.0595402271f, 0.6244347692f, -0.2790494859f, -0.3736762106f, -0.0103155766f, 0.0155174658f, -2.2725031376f, -0.1857473701f, -0.1608805954f, -0.2618893087f, -0.2828885615f, -0.2324993014f, -0.1099161431f, 0.3153010309f, -0.1114482433f, 0.0436840430f, 0.3761521280f, -0.6726303101f, 0.1932758391f, -0.2303313464f, -0.1272203773f, 0.9063468575f, 0.3218950927f, -0.4242426753f, 0.0490815602f, 0.1760000437f, 2.6537938118f, 0.3645521104f, 0.4394217730f, -0.0222384892f, -0.0269440766f, 1.8252166510f, -0.2285772562f, 0.0815534815f, 0.0572831929f, -0.0469689146f, -1.8236473799f, 0.1961934716f, -0.2896160185f, 0.0656412616f, 0.0183494948f, -2.2551357746f, -0.1610085964f, 0.4204488099f, 0.1354515553f, 0.1692952365f, -3.0994031429f, -0.4732745588f, 0.0003287663f, -0.0516051687f, -0.0078464681f, 1.7069827318f, 0.4138804674f, 0.1006041691f, 0.2059872299f, 0.2113452703f, 2.0430696011f, -0.2008520961f, 0.0612081848f, 0.0589351989f, 0.0634404123f, 0.6652334332f, 0.0645177141f, 0.1853561997f, 0.1368923038f, -0.1142283827f, -2.0098104477f, -0.2073354572f, -0.3285032809f, 0.0886336863f, 0.0716617554f, 1.7288659811f, -0.1967958212f, -0.0949899107f, -0.2306883186f, -0.2385470569f, -1.4454849958f, -0.0451266579f, 0.3262270391f, 0.0651782826f, 0.1021551564f, 2.4419522285f, 0.5061842203f, -0.1085821763f, -0.0741949752f, -0.1276670396f, 1.7835019827f, -0.0687896609f, 0.0445217565f, -0.0005193964f, -0.0668630600f, -1.7800942659f, -0.0281662121f, -0.0715621561f, 0.0209163241f, 0.0288126934f, -1.5069102049f, 0.0057018641f, -0.1270302385f, 0.0629930496f, 0.0531054847f, 0.5508900881f, -0.1542612016f, 0.4168494344f, 0.1805967540f, 0.3134484887f, -1.5456173420f, -0.3801637888f, -0.5534248352f, -0.1144215241f, -0.1675952822f, -0.7272475958f, -0.0548272282f, -0.2397634536f, -0.1142886281f, 0.2163354605f, 1.5860408545f, -0.1752082407f, -0.1902697235f, -0.0655056536f, 0.0808106586f, 2.3175904751f, 0.0911172628f, -0.2896212041f, 0.0051962007f, 0.0404205658f, -0.5791666508f, -0.1184326336f, -0.3647589684f, -0.1569073945f, -0.1875879318f, 1.3710865974f, 0.3327658474f, 0.0145423329f, 0.0454299338f, -0.0458701551f, -2.0386462212f, -0.0787951797f, 0.1057095826f, -0.0597583652f, -0.0410477445f, 1.1891096830f, 0.3816262186f, -0.3327303231f, 0.1283075660f, 0.1422553807f, -1.9955521822f, -0.4351791143f, -0.2888488173f, 0.1049439535f, 0.3439615667f, -2.3030600548f, -0.1515171230f, 0.3136663437f, -0.1522305012f, -0.1153849289f, -1.7088650465f, -0.2035782784f, 0.3068902194f, 0.2765717506f, 0.2415390164f, -0.8131048083f, 0.0392988883f, 0.2523591518f, 0.2367425114f, 0.1979062557f, -0.2011689991f, 0.4857470691f, -0.1991639584f, 0.0177065078f, -0.3112720549f, 1.1108641624f, 0.0654498860f, -0.1120249629f, 0.2523286641f, 0.2910621464f, -0.7107052207f, 0.2009793818f, -0.4923644960f, -0.0264069345f, -0.0401154421f, 1.7292923927f, 0.0443401150f, -0.4855161905f, -0.1331174523f, -0.1369470805f, 1.6149055958f, 0.3005451858f, 0.2900311053f, 0.0735351518f, 0.1535145044f, -0.9107059240f, -0.3125556111f, 0.4080806077f, 0.6525427699f, -0.2863512337f, -1.6688991785f, 0.2108558267f, -0.1872169673f, -0.0348133966f, -0.0474545918f, 0.7906129956f, 0.1619318426f, -0.6698789001f, -0.0446828529f, -0.1706696302f, -0.3356948793f, -0.2748833001f, 0.6218689680f, 0.2450913936f, 0.0144744366f, -0.8112103939f, 0.0070207198f, -0.2740870714f, 0.0761265010f, 0.0643899888f, -0.4569424689f, 0.0653866306f, -0.4922049046f, -0.1450407654f, -0.1112163439f, 1.8354070187f, 0.2827862501f, -0.1125925332f, -0.1131721959f, -0.1730581224f, -1.8035975695f, 0.0083449734f, -0.3710926771f, -0.0215548854f, -0.0807780549f, 0.0838707238f, 0.1366019249f, -0.2628097236f, -0.0333509296f, -0.0751652643f, -2.3009834290f, -0.0416232571f, 0.4572989345f, -0.0208993815f, -0.0941977501f, -1.7042067051f, -0.2023625821f, -0.2436841577f, -0.2418015450f, -0.1198325008f, 1.2658916712f, -0.3379545510f, 0.1032332778f, 0.0869567469f, 0.0410147496f, 2.2881836891f, 0.2922097147f, -0.0956328139f, -0.1520842314f, -0.2544053197f, 2.2381515503f, 0.4784213305f, -0.1270417273f, 0.2235966027f, 0.1031475961f, -2.0830137730f, -0.0612761155f, 0.0677751303f, -0.0233029276f, -0.0597782284f, 1.5868074894f, 0.3509542644f, 0.2052100450f, 0.1608876139f, 0.1618159413f, -0.7883862257f, 0.1599929482f, 0.5188761950f, -0.0130488677f, 0.0095984712f, 1.4372283220f, -0.0379842557f, 0.2481754571f, -0.0668549165f, -0.0148873376f, 1.7915539742f, 0.0215283707f, 0.2772946656f, 0.0739713386f, 0.2110500187f};
const float b1[] = {-0.0503288321f, 0.0707189888f, -0.0316469260f, 0.0526610166f, 0.0345719121f, 0.0338470452f, -0.0212601386f, -0.0148110660f, -0.0314117000f, -0.0226525757f, 0.0200993288f, 0.0009325016f, 0.0345896259f, 0.0562278293f, -0.0636137500f, 0.0352463573f, -0.0350210071f, 0.0272710472f, 0.0271041114f, 0.0769042000f, -0.0221632961f, 0.0094794016f, 0.0310937501f, 0.0234320946f, 0.0259683765f, -0.0068467930f, 0.0010961319f, -0.0923889503f, 0.0384907573f, -0.0018315747f, -0.0639931038f, -0.0099785002f, -0.0337756798f, 0.0421059281f, 0.0215878673f, -0.0251579043f, 0.0243114550f, 0.0166955274f, -0.0243219379f, 0.0519242659f, 0.1558639109f, 0.0236671865f, -0.0465725400f, -0.0570743196f, 0.0907947570f, -0.1546583623f, -0.0287976470f, -0.0533659980f, 0.0057264799f, -0.0454695411f, -0.0128906118f, -0.0294558797f, -0.0285719614f, 0.0333731696f, -0.0188516527f, -0.0665567964f, 0.0167571139f, -0.0412286855f, 0.0416890793f, -0.0001925620f, 0.0098814275f, -0.0399548672f, 0.0424480699f, 0.0223277602f};
const float W2[] = {-0.2949462533f, -0.3206240833f, -0.1634175032f, 0.4748015106f, -0.0115566617f, -0.0476144962f, 0.1625566781f, 0.2411575764f, 0.1856680214f, -0.1141786426f, 0.1562064290f, 0.1516105980f, -0.2652981579f, 0.1214663908f, -0.0146589363f, -0.0399804935f, 0.0633810014f, 0.1764364094f, -0.1509500891f, -0.3628617525f, -0.1531372666f, -0.0863045678f, 0.2004982531f, 0.2121248692f, -0.1319278777f, -0.3157652617f, -0.1662110686f, -0.0533043891f, -0.0389857925f, -0.1655871123f, -0.2176561058f, 0.1553142071f, -0.1862669140f, 0.1470613629f, -0.0267355498f, -0.0406763218f, -0.1855355948f, -0.0070679104f, -0.1763458103f, 0.1247213036f, -0.1264064908f, -0.0048736231f, 0.2145122290f, -0.3041818440f, -0.1121227443f, -0.0199017543f, 0.2975777984f, 0.2172823697f, -0.1605413556f, 0.0006523824f, 0.1300803423f, 0.2847633660f, -0.1599919200f, -0.2695414126f, 0.3896563351f, -0.0180781614f, 0.0468573421f, -0.1436805427f, 0.0191776324f, 0.0314003676f, -0.1358748674f, -0.0293731540f, -0.1884956658f, 0.0021568728f, 0.1032242626f, 0.1334575415f, -0.0373621881f, -0.2775559127f, -0.3927503824f, -0.2376906276f, -0.1532810479f, 0.1764643192f, -0.0821027085f, -0.1998930871f, -0.2663329244f, 0.0844556615f, -0.1205163375f, 0.0009608962f, -0.0970725119f, 0.3963161111f, -0.0705172122f, 0.0460254066f, -0.0364524759f, -0.0270434376f, 0.1414500326f, -0.0483574122f, -0.1500014663f, 0.0977262259f, -0.2527568638f, -0.1040000394f, -0.1300672740f, -0.4415723383f, 0.1817920506f, -0.0260264184f, -0.2730701566f, -0.2884618938f, -0.0248932820f, 0.0067053544f, 0.1428343803f, 0.0391474217f, -0.3931934237f, 0.1693424433f, -0.1920542717f, -0.1538376808f, -0.1954044253f, 0.3057738543f, -0.0027121694f, -0.0428536572f, -0.0394640453f, -0.1232762560f, 0.0471334085f, 0.0613670200f, 0.2496344298f, 0.1533364505f, -0.0018580026f, -0.0950021073f, -0.1334992647f, -0.0022531834f, -0.0263952687f, 0.1394920945f, -0.0891298205f, -0.3391266465f, -0.0333639979f, 0.0035287545f, 0.1467084736f, -0.1002704874f, 0.2500081360f, 0.2128175944f, -0.1530739963f, -0.0174430124f, 0.1640217751f, 0.1876150221f, -0.2251814008f, -0.1372852623f, -0.0705907866f, 0.0556449071f, -0.1528770030f, 0.1975909919f, -0.0994541943f, 0.2611147761f, 0.0377066284f, 0.0265471023f, -0.2170208693f, -0.0180455875f, -0.0975770503f, -0.2104928643f, 0.0036287103f, 0.7237096429f, -0.2032776177f, -0.0855717659f, -0.0403331481f, -0.0002119249f, -0.1229513362f, -0.2609450221f, 0.0554892011f, -0.1840656698f, -0.0943297073f, -0.1402210146f, 0.2172053009f, 0.0757957697f, 0.2006916851f, -0.0250378530f, -0.1690535247f, 0.1567540169f, -0.0259670150f, 0.1589576900f, -0.0367831700f, 0.1631900072f, -0.2452892214f, -0.1390015781f, 0.0032306521f, 0.2162376344f, -0.0445831753f, -0.0875899196f, -0.1158544347f, -0.1097519472f, -0.0307327490f, -0.2651960850f, 0.0300121233f, -0.0034484915f, -0.1349602044f, 0.0012697780f, 0.1679415554f, 0.1056184694f, 0.1572359055f, 0.0165837910f, 0.2244222462f, 0.2330275923f, -0.3442083597f, -0.1365262568f, 0.0719869211f, 0.1419719160f, -0.1567808688f, 0.0334962718f, 0.0247397311f, -0.0997079983f, -0.2463192493f, -0.0039156345f, -0.1218104735f, 0.2982429564f, 0.1284156740f, -0.0277150106f, 0.1878223270f, -0.1858554333f, 0.0956293941f, -0.1811455190f, -0.0565709695f, 0.3459323645f, 0.3094173670f, 0.0772030726f, -0.2515645325f, -0.0120330853f, 0.0964921191f, 0.0664429590f, 0.4870372415f, 0.3388439417f, 0.1295841485f, -0.0821883157f, 0.0859830901f, -0.1333440244f, 0.2748495638f, 0.4226589799f, 0.1829675734f, 0.1186915264f, 0.1308856755f, 0.0735784918f, 0.0830955282f, -0.1452325284f, -0.0756172463f, 0.2385530770f, -0.1151948422f, -0.1642251611f, 0.3436716795f, -0.0006345061f, -0.0447824262f, 0.2257302552f, -0.0029553855f, 0.1237252951f, 0.3093251884f, -0.1810695231f, 0.1638804525f, -0.0947866216f, 0.0920538008f, -0.1559566855f, 0.2249975353f, 0.1224499121f, 0.0417299606f, -0.0747499093f, -0.0013553082f, -0.0859516114f, -0.0948978588f, 0.0597828738f, -0.2596760690f, -0.0176543389f, -0.1246883124f, -0.2420805246f, -0.2081907392f, 0.0351918116f, 0.1692867726f, 0.0978296474f, -0.1528860629f, 0.1603334099f, -0.0185507704f, -0.3240199387f, 0.0784698799f, 0.0030864172f, -0.2563971281f, 0.0614337213f, -0.0691460595f, -0.1722786576f, 0.2594885528f, -0.0994320512f, 0.0042672306f, 0.1877780706f, 0.0089660231f, -0.0374356173f, 0.1202577725f, -0.0827502981f, 0.1503888965f, 0.2343180925f, -0.2043246031f, 0.2502763271f, 0.0614290871f, 0.0857469514f, 0.6270374656f, -0.1202233210f, 0.0325970687f, -0.2935812175f, 0.2528604865f, -0.3262801766f, -0.2984455526f, -0.1942785382f, 0.0716442689f, -0.0766344443f, -0.0995648503f, 0.0956727415f, 0.0043962379f, 0.2445152402f, 0.1919877529f, -0.2954252064f, -0.2945230305f, 0.0902062505f, -0.1523096561f, -0.2206725776f, -0.0532887951f, -0.0962663889f, -0.0295560900f, -0.0177744124f, -0.1022271588f, 0.2578947246f, 0.1354419291f, 0.0869568810f, -0.0409662686f, -0.0923062339f, -0.0030546163f, 0.0417459346f, -0.0341756046f, 0.2333440632f, -0.2658663988f, -0.0157072227f, 0.3163898289f, -0.1645465046f, -0.0257116333f, 0.2218634784f, -0.0988007709f, 0.1914566308f, 0.1155760959f, 0.1277276576f, 0.4950205684f, -0.0239714272f, 0.0087922225f, 0.0017107360f, -1.1449847221f, -0.1507587731f, 0.3224656880f, -0.0508473292f, 0.8429186344f, -0.4415721297f, -0.7774832845f, 0.0110468483f, 0.4554967880f, 0.0734793097f, -0.0351232924f, -0.3751627803f, -0.0342977121f, 0.4507095516f, -0.0381548479f, 0.0374414921f, 0.5934543014f, -0.0333869793f, 0.3583403528f, -0.0924680158f, 0.2480624169f, -0.2908367515f, 0.5940923691f, -0.0002131063f, -0.1043548584f, 0.5084012747f, -0.0784716532f, 0.0099557610f, 0.0770606697f, 0.0585542470f, 0.0757637843f, 0.3381813467f, -0.2634811699f, 0.1722049564f, 0.4655445218f, 0.2922959030f, -0.2224692553f, -0.0827095285f, 0.0886305347f, 0.0584268458f, 0.6011593938f, 0.0809278339f, 0.0638257191f, 0.0691933557f, -0.1962199360f, -0.2135857195f, -0.4752052724f, 0.2655324638f, -0.4690603316f, -0.0818971619f, -0.0766948536f, -0.2696304619f, -0.2160224617f, -0.0345795564f, -0.4626136720f, -0.1360162497f, 0.0873907954f, -0.1416002661f, -0.1460368037f, 0.0120783243f, -0.2803345919f, -0.0408153869f, 0.0029620889f, -0.1507374793f, 0.3326434493f, -0.0279763117f, -0.0674265176f, 0.0066806800f, -0.2627432644f, 0.4663844705f, 0.2029626518f, 0.3234401345f, -0.4026221931f, -0.0410935804f, -0.0094447220f, -0.0963190868f, 0.0527961589f, -0.1658158749f, 0.1510872245f, 0.3412319720f, 0.1743643880f, -0.2448391169f, -0.0312078707f, -0.1558082551f, 0.0088410694f, 0.2977086902f, 0.1361937970f, -0.2330744267f, -0.2027452886f, -0.1809071749f, -0.3556470275f, 0.1184327677f, -0.0121833645f, -0.1475102305f, -0.2386466414f, 0.1190789118f, 0.1348398328f, 0.2177090049f, -0.1524212807f, 0.0361925848f, 0.0487994999f, -0.1492532343f, 0.0677741542f, 0.0998954475f, -0.1977852583f, -0.0777323842f, 0.1764504462f, -0.2843871117f, -0.2990670800f, 0.0543363132f, 0.0425393321f, -0.2874669135f, 0.5132077932f, 0.2480415702f, 0.2449002266f, 0.1584626585f, 0.0039831684f, 0.0539961495f, -0.1194865480f, 0.0389227681f, -0.0643646568f, 0.1156793684f, 0.0037991265f, -0.4014170766f, 0.1840212494f, 0.0237270631f, -0.0047939322f, -0.0845242590f, 0.0199316982f, 0.1001888663f, -0.2050461620f, 0.4228429794f, 0.0703604966f, -0.2737690210f, -0.0832027420f, 0.0244763251f, -0.2049115300f, -0.2731465995f, 0.0648007691f, -0.1578022391f, 0.1348908991f, 0.0623693131f, -0.0283095744f, 0.0670349300f, 0.2804783881f, 0.0044531631f, -0.2308788300f, -0.5123668313f, -0.1904192120f, 0.2558262646f, -0.1196752265f, -0.0551796891f, 0.0519819669f, 0.6205261946f, 0.0870546401f, 0.4268517494f, 0.1350926012f, 0.0095199347f, -0.1163726002f, -0.3844279945f, 0.0909245387f, -0.1666607261f, 0.3156805933f, 0.0508902296f, 0.2132808566f, 0.1027246043f, -0.1221681163f, 0.1109006926f, 0.3819749951f, 0.2885694206f, 0.1218036339f, -0.5220876932f, -0.0593218617f, -0.0948634744f, 0.0752871707f, 0.1353566945f, 0.0209402833f, -0.0135957450f, -0.0446940921f, -0.1832287163f, -0.2590511441f, 0.0299712773f, -0.0795571655f, 0.1667139083f, 0.0596240982f, -0.2551095486f, 0.0623988025f, -0.1501836479f, -0.7501387596f, -0.1825055778f, -0.2887850702f, 0.1722643971f, 0.9551623464f, -0.1469182968f, -0.1881733686f, -0.0041846279f, -0.8440551758f, 0.5261449814f, 0.4942969382f, -0.2827076018f, -0.2912940681f, -0.2462226450f, -0.1989557594f, 0.2850774825f, 0.2408682853f, -0.3422932625f, -0.0149734784f, 0.1529134810f, -0.5855411291f, -0.2601276934f, 0.4480614364f, 0.2967830002f, -0.0324799977f, 0.0641890839f, -0.3263598382f, 0.5466834307f, -0.2197488397f, -0.6879221797f, -0.1840137690f, 0.1466974020f, -0.1016540974f, 0.3111753464f, 0.0000920756f, -0.2375679463f, 0.3610159159f, 0.1840633750f, 0.0197824053f, -0.0285723172f, 0.1255778819f, -0.2647785544f, -0.4966396689f, 0.0197483152f, -0.4848783612f, 0.0745613202f, -0.4794917405f, -0.5860555768f, 0.1317791343f, 0.0564648733f, 0.4430820644f, -0.2551390827f, 0.3605248034f, 0.5260379314f, 0.1460660696f, 0.3467219174f, 0.2907655239f, -0.0894383863f, -0.0819997638f, 0.1959173083f, -0.2663878202f, -0.3913281262f, -0.3807034194f, 0.2220090926f, -0.1835146993f, 0.0221930873f, -0.1559743583f, -0.2781665921f, 0.0267559756f, 0.3798932731f, -0.3021401763f, 0.0389980488f, -0.2599637806f, -0.2735714614f, 0.3695584238f, -0.0173339862f, -0.0667604953f, 0.3121885955f, -0.0729746819f, 0.0163246263f, 0.2987143993f, 0.0856618285f, 0.1559945494f, 0.2547989786f, 0.1267654896f, -0.1194024011f, -0.1125648096f, 0.0252046902f, 0.0783058777f, -0.3324308693f, -0.2130400538f, -0.2500799596f, 0.2083805501f, -0.0271050017f, 0.0038430667f, -0.1874955893f, -0.1151092649f, 0.0926266462f, -0.1511816829f, -0.0745529979f, 0.2698915899f, -0.1484244168f, -0.1812084466f, 0.1004802138f, 0.1175191253f, -0.3414299190f, -0.0933570489f, -0.2255393416f, -0.0782588273f, 0.0457965024f, 0.1897668988f, -0.2979101241f, 0.1800432354f, 0.0897036418f, -0.1817487478f, -0.1931688637f, -0.2646890581f, -0.2006319314f, -0.3420156538f, 0.1992294788f, -0.1861489415f, 0.0648118407f, -0.1312174797f, 0.3010540903f, -0.1743583977f, -0.0059388829f, -0.1763504297f, -0.1726843119f, 0.1965600997f, -0.0512391813f, 0.0191628523f, 0.1344251335f, 0.0589040183f, -0.2732293904f, 0.2457691878f, 0.2007667273f, 0.2598938048f, -0.1788933128f, 0.0871251896f, -0.0759339333f, 0.2514477074f, -0.4191206992f, 0.0322141163f, 0.1211210713f, -0.1337893009f, -0.1630094796f, -0.1987627000f, 0.0250386819f, -0.2362586707f, -0.1815690994f, 0.0822176859f, -0.1467179954f, -0.0445590392f, -0.1523246020f, 0.1994731575f, 0.0417744070f, -0.1091902107f, -0.0468668826f, -0.0772838518f, 0.2007283568f, -0.2395056188f, -0.1117213443f, -0.0625431761f, 0.0735773668f, 0.4412154853f, 0.0608661920f, -0.1821591556f, -0.1993111670f, 0.1390224099f, -0.0067550195f, 0.1662296057f, -0.1147651002f, 0.1604172140f, -0.0900782123f, 0.1164820716f, 0.0683347508f, -0.1976412982f, 0.0366809331f, 0.1856208593f, -0.3504617214f, 0.2391145825f, -0.0450184941f, -0.3321963251f, -0.3809931874f, -0.1066316217f, 0.1450924873f, -0.0136735337f, 0.1364158094f, 0.0407305770f, -0.0284126103f, 0.1485275477f, 0.0698026195f, -0.1125229970f, 0.1139728501f, 0.0886446610f, -0.1072818860f, 0.1914916039f, 0.3758291006f, 0.2838925719f, -0.1727773100f, -0.1569865346f, 0.0319475904f, 0.2546932995f, 0.2668246925f, 0.1658433527f, 0.0718677416f, 0.0051557301f, -0.1952024847f, 0.1905042380f, 0.0159444008f, -0.0310696028f, 0.0342726633f, 0.1123041287f, 0.3602396250f, 0.0638235509f, 0.0121928100f, 0.0555964410f, -0.0707761422f, -0.3402912617f, -0.1102325320f, -0.2454020530f, -0.2021123618f, 0.1150866672f, -0.1047550067f, -0.3415538073f, 0.2352335602f, 0.0378518403f, -0.1530978382f, 0.3931307495f, 0.0879892111f, 0.3211827576f, -0.0293176267f, -0.0212618522f, 0.0011640688f, 0.2604189217f, 0.1517291665f, 0.0752018020f, -0.0107412841f, -0.1306908280f, 0.0693408549f, -0.3226443529f, -0.1191466749f, -0.0879600868f, 0.4592060447f, -0.0770698041f, -0.1013292670f, -0.1143367514f, -0.0697334781f, -0.3781291544f, -0.2131538093f, -0.2967214882f, -0.1776316017f, -0.1009102911f, -0.0291610528f, 0.2468623519f, -0.0940444544f, -0.4794609547f, 0.4132449031f, -0.3456210196f, 0.5105595589f, 0.5068554282f, -0.1767619699f, -0.0420461483f, -0.1272061318f, -0.7913693190f, 0.2165816426f, 0.0196532533f, -0.2231874913f, -0.5169434547f, 0.2811381519f, 0.0419793203f, 0.5454441905f, 0.0106325680f, 0.1692866534f, 0.0716807768f, -0.0142242527f, -0.1804824024f, 0.1375531703f, -0.1307042539f, 0.7591297030f, 0.1175904348f, 0.4778451920f, -0.1059864536f, 0.3561537266f, -0.3206086159f, -0.3537943065f, -0.2871518433f, -0.0937769711f, -0.0301123336f, 0.3923872709f, 0.1762808263f, -0.0625324771f, 0.4022174478f, -0.2020651698f, -0.0986240879f, -0.1184718385f, -0.3031327426f, -0.2208929509f, 0.2713483572f, 0.3326053321f, 0.0221565329f, 0.0515894331f, -0.5341749191f, 0.0227638613f, -0.0523991957f, 0.4826070368f, 0.5790896416f, -0.3528161049f, 0.2927430868f, -0.2579081953f, 0.1741812676f, -0.1320083290f, -0.1720111966f, 0.0587049648f, 0.2015244961f, 0.0330471732f, -0.1939944029f, -0.0805790871f, -0.0147102922f, -0.1950808764f, 0.0118807368f, 0.0341224857f, 0.1137081087f, -0.1632996649f, 0.2025623918f, -0.1462652534f, -0.4210301340f, -0.4369940162f, -0.0879542083f, -0.0144544467f, 0.2216505855f, -0.3204800785f, 0.0417673737f, -0.0378323384f, -0.0638361052f, -0.1068391502f, -0.2047794014f, -0.0932510942f, -0.0644090027f, 0.1412105113f, 0.0917003378f, 0.0635326505f, -0.0574974678f, 0.4856437445f, 0.3352596164f, 0.1167289168f, -0.2602230012f, 0.2578423917f, 0.0533430949f, -0.1909310520f, -0.1121973172f, -0.0892752782f, -0.0489010029f, 0.2279738486f, 0.0654252842f, 0.5155561566f, 0.2507661879f, 0.0706670359f, 0.2072622180f, 0.1087261364f, -0.0717359260f, 0.4488383532f, 0.2119141072f, 0.2196116447f, -0.3470155597f, 0.1265268773f, -0.1579533070f, 0.0179249141f, -0.1910678148f, 0.3074931502f, 0.0874747634f, -0.3380454183f, -0.2179277241f, -0.2164009064f, 0.1495713145f, 0.2480797172f, 0.0036615664f, 0.1597938091f, 0.0597841777f, 0.2657996714f, 0.0592220947f, -0.1055774912f, -0.0620493926f, -0.1336617768f, -0.0174160153f, -0.0555168875f, 0.0505173691f, 0.2201503515f, -0.2250660360f, -0.0896409154f, 0.1916174591f, 0.1480091959f, 0.0416091345f, -0.0918882117f, -0.6830244660f, -0.1435269117f, -0.1882196963f, -0.1525718570f, -0.3798453212f, 0.0643460229f, 0.1662013680f, 0.0428168327f, 0.1257456839f, 0.0843825564f, -0.0619745143f, -0.0477031507f, -0.1007470414f, 0.0734785497f, 0.1336846799f, -0.1965989172f, -0.0405071862f, -0.2307224721f, -0.1026817784f, -0.0510241985f, 0.1750998497f, -0.0495027006f, 0.3037387729f, -0.2711415887f, 0.1904602051f, 0.0191189665f, 0.1362765580f, -0.0819206238f, 0.1954421550f, -0.2376699895f, 0.0901539326f, 0.2306479812f, 0.4673565328f, -0.2657023668f, -0.2571295202f, 0.0426417477f, 0.1061980277f, -0.0997211635f, -0.0269722715f, -0.2476771772f, -0.1741800904f, 0.1576662958f, 0.2121889144f, 0.0844229534f, 0.0649373084f, -0.0617122948f, -0.1200220063f, 0.4022687674f, 0.3726431429f, -0.0316936970f, 0.2471610606f, 0.0060911751f, -0.0989199132f, -0.0953589305f, 0.1279539317f, -0.0664469674f, -0.1083071083f, -0.2068839222f, 0.0986445323f, 0.5247480273f, -0.2840430737f, -0.2345658690f, -0.1831145734f, -0.1050346792f, 0.2067016512f, 0.0520800874f, 0.0939953849f, 0.1203113422f, 0.0149966395f, -0.1024026498f, 0.0031409834f, 0.0600974858f, -0.0560317449f, -0.1742724478f, -0.0558041558f, -0.3586412668f, -0.1230524629f, 0.1852545291f, 0.1615927517f, 0.3082323670f, -0.1841860563f, -0.2361297756f, -0.5307690501f, -0.3224897385f, -0.0661023855f, -0.0466079153f, 0.4627650976f, 0.0347200371f, -0.2959339321f, 0.0009481327f, 0.0443979613f, -0.0413961075f, 0.0949911699f, 0.1940018684f, 0.2333486527f, -0.6294175982f, 0.1102170646f, -0.0154859992f, 0.0453280546f, 0.0980264470f, -0.0243767314f, 0.0365715213f, 0.4501399994f, -0.0678348169f, 0.2583997846f, -0.1823787540f, 0.1128887683f, 0.0478629656f, 0.0542603731f, -0.1047291905f, 0.0310255624f, -0.0438082255f, 0.2295116037f, 0.0464656018f, -0.3994450569f, 0.2547258735f, 0.2933838367f, -0.0650335252f, -0.0470687859f, -0.2239670902f, -0.1782538146f, -0.1807089597f, -0.3117497265f, -0.2036423981f, 0.0614035167f, 0.0154465893f, 0.0526213199f, 0.0472655706f, -0.0283610709f, -0.2345215678f, -0.2447254807f, -0.1068918481f, 0.0635798573f, -0.0240230896f, 0.0959299877f, 0.0682488084f, 0.3690457642f, -0.2113937289f, -0.2280768752f, 0.1066666320f, 0.2038486898f, 0.0194035433f, 0.0918571278f, 0.2542367280f, -0.0229563378f, -0.0460557826f, 0.0695435181f, 0.1363557726f, 0.1366679966f, 0.0303592514f, -0.0591519997f, 0.0646724105f, 0.0031216890f, -0.0418637842f, -0.0566968210f, 0.1576021761f, -0.2821056843f, 0.3894561827f, 0.3056669831f, -0.0989138186f, 0.0052127889f, -0.1053195894f, -0.1091262847f, -0.2376256585f, 0.1879689991f, 0.0095227389f, -0.4487350583f, -0.0842855945f, -0.1379331201f, 0.1047134697f, 0.1142552495f, -0.0280624926f, 0.0188791100f, -0.4106508195f, -0.1660841256f, 0.4124286175f, -0.2798987627f, -0.2014790028f, -0.1780358404f, -0.3903604150f, 0.1127408892f, 0.2288966775f, 0.0579110384f, 0.0246855617f, 0.0116958413f, -0.0798744485f, -0.0154936090f, -0.0531028584f, 0.1393845677f, -0.2889630795f, -0.0689236373f, 0.0836507753f, 0.2344426960f, -0.2481392920f, -0.0449295640f, -0.2083638161f, -0.2399316132f, -0.0882257149f, 0.1231782734f, 0.2100922018f, -0.2563937902f, -0.1380989403f, 0.2464186549f, -0.1455969959f, 0.2420244515f, 0.3577646911f, 0.0658602417f, -0.1083431467f, -0.0735958591f, -0.2982870638f, -0.2405368686f, 0.1665879339f, 0.4715342224f, -0.2054205388f, -0.0817950442f, -0.1491330862f, -0.2909570932f, -0.0340242572f, -0.1277258545f, -0.2615610659f, -0.1432646811f, 0.0454298221f, -0.0278767366f, 0.0232530907f, -0.1502481997f, 0.1438463926f, 0.1836506575f, 0.0864770934f, 0.1129456386f, 0.0269911233f, 0.1810259223f, 0.3134163916f, 0.0956708863f, 0.0712762773f, -0.1029734239f, -0.1858555675f, 0.1121926159f, 0.0623112805f, 0.0854471847f, -0.3347469270f, -0.3894757330f, 0.0648783222f, 0.0497349128f, 0.2773883045f, -0.1023823991f, 0.0741166100f, 0.2498832047f, 0.0785620064f, 0.0694668740f, 0.0002245316f, 0.2277405113f, -0.0139675559f, -0.0686251149f, 0.1969105154f, -0.1641460359f, -0.0797305778f, -0.0187281612f, -0.0401437879f, 0.1328519881f, -0.2959809303f, 0.1855481118f, -0.1122621596f, -0.1232995838f, 0.0961177051f, 0.1644975841f, -0.1784167439f, -0.0252025910f, -0.4614478946f, 0.0618687160f, -0.3030583858f, 0.1849546880f, -0.2392528653f, 0.0640112534f, -0.1934182495f, 0.1996961534f, 0.1085521355f, 0.2765858471f, -0.2627680898f, 0.0600428954f, 0.2818807960f, 0.0266249627f, -0.0771114752f, -0.0149618313f, 0.2009074986f, 0.0123028560f, -0.1501118988f, -0.2257363051f, 0.1513423920f, 0.0437389575f, -0.0826556906f, -0.0699847341f, -0.2411895245f, 0.0617669709f, -0.3521401584f, -0.0917198807f, -0.4200809002f, 0.3104074299f, -0.0037781952f, -0.0148196798f, 0.0708441883f, 0.3220422268f, -0.2111830413f, 0.0688992217f, -0.2509055734f, -0.0261286628f, 0.1903833747f, 0.1484308392f, -0.2566567063f, -0.3526819348f, -0.0384428725f, -0.1237536967f, 0.3816347420f, 0.1640819758f, -0.5201491714f, -0.3215681612f, 0.2620415390f, 0.5161095858f, 0.3514664471f, 0.5608029366f, -0.0501167774f, -0.0720092356f, -0.1147067621f, 0.3914051950f, -0.0340004712f, -0.0066170399f, -0.4117570817f, -0.3026290834f, 0.3207136095f, 0.1403363198f, -0.2315633744f, 0.1716693640f, 0.0599818788f, -0.1350347102f, -0.5027412772f, 0.2304460555f, 0.0935443789f, 0.3674910367f, 0.0982365310f, 0.0975630879f, 0.3454894423f, 0.4535453618f, 0.3815832436f, 0.1564151347f, 0.0640116334f, 0.0990336463f, -0.2734033465f, -0.0828849226f, 0.1015814245f, -0.0982365981f, -0.0422356538f, 0.3686278164f, -0.2013427913f, -0.0317871794f, -0.2770491838f, -0.0325839408f, 0.1193287969f, 0.5424662828f, -0.1066103354f, 0.0544149317f, -0.1342348754f, -0.1912703067f, 0.3033355176f, -0.1286045313f, 0.0739098564f, 0.0428337082f, -0.2216572016f, -0.0962641910f, -0.1844791323f, -0.1697069108f, 0.3452511430f, 0.0557841286f, -0.3569003642f, 0.3542512953f, -0.4410388768f, -0.5544593930f, -0.0395511948f, -0.6623209119f, 0.3807374537f, 1.0009219646f, 0.3915699720f, -0.0640687495f, 0.2276707888f, -0.5696735382f, 0.3148626089f, 0.2939358652f, -0.0302045234f, -0.4673106670f, -0.5874505639f, 0.3180329502f, 0.2108508795f, -0.1846455187f, -0.1845078170f, -0.0702842698f, 0.4506374598f, -0.3678606451f, 0.3460464180f, 0.2007504255f, 0.2366641611f, -0.4681374729f, 0.2351813018f, -0.1831451654f, 0.1123452336f, -0.0174762905f, -0.5021422505f, 0.3735553324f, 0.1534443200f, -0.0619784929f, 0.4312604964f, -0.1620944142f, 0.1871579736f, 0.1678757817f, -0.0290111620f, -0.4009693265f, -0.1729401648f, 0.0658529848f, -0.2114828378f, -0.0692264512f, -0.0088358494f, -0.7651815414f, -0.3557589948f, -0.3433718383f, -0.3379412889f, 0.0613381490f, 0.0332170576f, 0.2891728580f, -0.5138849020f, 0.6919515133f, 0.3147286773f, 0.1626414955f, 0.5649864078f, 0.2830811739f, 0.2363387793f, 0.0459007584f, 0.0310836826f, 0.2011085153f, -0.0294432566f, -0.0243052561f, 0.0442919992f, -0.2935328484f, -0.0864319280f, 0.2443278134f, -0.1597181410f, -0.2762835324f, 0.0283631161f, 0.0666145906f, 0.5321037173f, 0.2605746388f, -0.0123417843f, 0.2497062683f, 0.0521395989f, 0.3226485848f, -0.4071511328f, 0.0170292910f, 0.1814910322f, 0.0941058621f, 0.2991044819f, 0.0453786515f, 0.1212342903f, 0.1443352401f, -0.2350298762f, -0.2552732527f, 0.1389301419f, 0.1452678442f, -0.0293651838f, -0.1660477668f, -0.0807604864f, 0.2979641855f, 0.2717131972f, 0.0227572471f, 0.2991268039f, -0.0182409156f, 0.0266969167f, -0.0338129178f, 0.1253789961f, -0.0442859605f, 0.2610794306f, -0.2133277655f, -0.0463735983f, 0.1152612865f, 0.0046887808f, 0.0642639622f, 0.2811256945f, 0.1729286760f, -0.1475677490f, 0.2164838463f, -0.0184556972f, 0.2696881890f, -0.3167095482f, -0.0779554173f, 0.1656831801f, 0.1276623309f, 0.0899189040f, -0.1368627399f, 0.3047156632f, -0.0142841507f, -0.0672084168f, 0.1696977764f, 0.1323597729f, -0.1131364256f, 0.1266670674f, 0.1262603551f, 0.1646827906f, 0.0970141366f, 0.3251200020f, -0.3773502409f, 0.0981698111f, -0.1515517086f, -0.0717015564f, 0.2416850328f, 0.1176719218f, 0.0596094728f, 0.0990285948f, 0.1474533826f, -0.1578260958f, 0.2267548144f, 0.2428153306f, 0.0220977608f, 0.0093095424f, 0.0275524277f, 0.0968411341f, -0.0949898139f, 0.1903342903f, -0.1549799144f, 0.1175938025f, -0.2493874133f, -0.1367893815f, 0.3348138630f, -0.2429859489f, -0.0566033162f, -0.3217938244f, 0.0215472393f, 0.3605119288f, -0.1117162630f, 0.1697956175f, 0.0656179264f, -0.3240894675f, -0.1320493817f, 0.2276296467f, 0.1154542416f, 0.1468385756f, 0.0958829820f, 0.2430447042f, 0.0235867277f, 0.1496233642f, -0.1816285551f, 0.0071097272f, -0.0655104145f, -0.2518629432f, -0.1202416271f, -0.1676760912f, 0.0016717963f, -0.0171014499f, 0.3790232539f, 0.2363206297f, -0.0424836874f, -0.0144981369f, 0.2109650224f, 0.0231228434f, -0.3617541492f, -0.1147774979f, -0.0480962135f, 0.0320967846f, -0.0528806597f, 0.1274829060f, -0.0012114207f, 0.2673873901f, 0.0605501644f, -0.0002680131f, -0.1595300883f, 0.1640764326f, 0.0335129388f, 0.1224833876f, -0.1067901105f, -0.2749256492f, -0.3626848757f, 0.0616344586f, 0.1967132539f, 0.0062828767f, 0.1674610227f, 0.2400682420f, -0.5175381899f, 0.0789530724f, 0.2124930769f, 0.0148170665f, 0.1940584332f, 0.0581552163f, 0.2160419524f, -0.0482636876f, 0.1264171302f, 0.0834892765f, -0.0294863749f, 0.2763328552f, -0.2568683028f, 0.0531655401f, -0.0024123408f, 0.1351945102f, 0.1076067090f, 0.0829584301f, -0.0570671484f, 0.0564157553f, 0.3307076395f, 0.3122935593f, -0.2286228091f, 0.1798272580f, 0.1156828925f, -0.0630579144f, 0.2402380258f, 0.1282726079f, 0.2364449799f, -0.1963498890f, 0.3814892173f, -0.2969811261f, -0.1847963631f, 0.2525763512f, 0.2774788141f, 0.2226038128f, -0.0891001895f, -0.4099111855f, -0.0989912003f, -0.0372721255f, 0.0196042676f, -0.0737030879f, -0.2882544696f, -0.3056045473f, 0.0508024581f, -0.2652785182f, -0.1867732704f, -0.4258774817f, 0.5355724692f, -0.2934666276f, -0.2824352384f, 0.2071110308f, 0.1726171225f, 0.1540036798f, 0.3892173767f, 0.0783082694f, -0.5093957782f, -0.3724631667f, -0.1473930180f, 0.2535930574f, 0.2721876800f, 0.1166485026f, -0.3562641144f, -0.0652968287f, -0.1374396086f, 0.3441588581f, -0.0178107116f, -0.0443437248f, -0.2206233442f, -0.0510621518f, -0.3950015903f, 0.0605515875f, 0.0444378480f, 0.4102589786f, -0.2301383168f, -0.1158954203f, -0.2138355821f, -0.1100095287f, 0.1079101562f, -0.1820257902f, -0.2910884917f, 0.2904644608f, -0.0958367363f, 0.2940133214f, -0.1906196624f, -0.0587038882f, 0.3018408120f, 0.0635265633f, 0.0122842081f, -0.2836945355f, -0.0903521702f, -0.0618984811f, -0.2030647993f, -0.4102580547f, -0.3411575854f, -0.1654335856f, -0.0698583871f, -0.2320728451f, 0.0788383409f, 0.0071247551f, 0.1409606934f, -0.2762587667f, 0.3458373547f, 0.2151786834f, 0.3215728104f, 0.1089852527f, 0.2771938443f, 0.0627674758f, -0.2216002792f, 0.0517995916f, -0.0290813316f, -0.0243090987f, 0.5239686966f, -0.3450383842f, -0.3261058629f, 0.1579892188f, -0.2493063211f, -0.1694592535f, 0.1370594800f, 0.0665109381f, -0.2867563069f, -0.1155723408f, -0.0561981648f, -0.0704289302f, -0.1073528081f, -0.1676333994f, 0.2366308570f, -0.0118801678f, 0.0989713594f, 0.0673027560f, 0.4237748086f, -0.1969943196f, -0.1208207309f, -0.2376284450f, 0.1573965997f, 0.0121887000f, 0.1227012351f, -0.4012384713f, 0.2426958978f, -0.0386050045f, 0.2225897312f, 0.0731692016f, 0.0287508350f, -0.2556014955f, -0.0343955494f, 0.1003577858f, -0.1045036390f, -0.2739257812f, -0.0270685181f, -0.1573092341f, 0.0315575935f, -0.0194116700f, -0.0198831297f, -0.0126430970f, 0.0698757395f, 0.0600391887f, 0.1912089884f, 0.0335594788f, 0.0479172505f, -0.0332229435f, 0.2421889901f, 0.1681920588f, 0.0750985593f, 0.0130850589f, 0.1541051567f, -0.1666542292f, -0.0097899837f, 0.1064537913f, 0.1269597709f, 0.1011125967f, 0.1196772903f, -0.2146085203f, 0.1049286947f, 0.2898978889f, -0.1860167533f, -0.0834985077f, 0.0406409577f, -0.1486602128f, -0.2614948452f, 0.1758445799f, -0.0390479229f, 0.0557867289f, 0.4597032666f, 0.0212201402f, 0.0814275518f, 0.0418884009f, 0.1907681227f, 0.0616453514f, 0.1583302915f, 0.2053996325f, -0.0231145564f, -0.2038791925f, -0.0140470322f, -0.1171017215f, -0.0491971858f, -0.0211960245f, 0.3733614981f, -0.0419931263f, -0.1149476171f, -0.0676018968f, 0.0562242121f, 0.1307419538f, 0.0219767522f, 0.0315451175f, 0.0352128297f, -0.1654334217f, -0.2216268480f, -0.2242781967f, -0.1927044541f, -0.1816657633f, 0.2776048779f, 0.0382562950f, -0.1398548633f, -0.1996591240f, -0.0922756121f, -0.3123244047f, -0.1026426181f, 0.0481537394f, 0.2210887671f, 0.4135833979f, -0.2455259562f, 0.0324143432f, 0.4524150193f, -0.2209739685f, 0.1727517992f, -0.0443547256f, -0.0143554276f, -0.0422491245f, -0.0423403084f, -0.0634449795f, -0.0981063768f, 0.1317019910f, 0.0040595401f, 0.3179945648f, -0.1000736430f, 0.0069635692f, -0.1423900127f, -0.1411475539f, -0.0355914943f, 0.3659202456f, 0.2412032485f, -0.0127483299f, -0.0609968416f, -0.2429454476f, -0.0896080583f, -0.3036932647f, -0.2485313863f, 0.2333898246f, 0.0428396203f, 0.2061502039f, -0.0111255823f, 0.0526550077f, -0.1612613201f, -0.0176925026f, 0.2602677941f, -0.0634268820f, -0.1563591659f, -0.1222827360f, -0.1362457275f, -0.1136857867f, 0.1085976958f, 0.0057428642f, -0.3510130048f, 0.1789050847f, 0.0962869450f, -0.1008546427f, 0.0493009090f, 0.0731309205f, 0.1747914106f, -0.2490407825f, -0.0396740995f, 0.4251078963f, -0.1624002904f, -0.2932386994f, 0.1094199643f, 0.1001321748f, -0.1487951130f, -0.0660400316f, 0.0936346948f, 0.0679644272f, -0.2374795973f, -0.3251612782f, -0.2914950848f, 0.0631621480f, 0.1257552356f, 0.0584264286f, 0.1049569696f, 0.2744879425f, 0.4623390138f, -0.1609309912f, 0.1124845967f, 0.0207157359f, 0.1370578259f, -0.0199154727f, -0.2100811452f, -0.0287487544f, -0.1781310439f, 0.1784058958f, 0.2451540381f, 0.0268427599f, -0.4399805665f, -0.0696983412f, 0.1228565425f, 0.0377645828f, -0.0502973683f, -0.1293191165f, 0.3784318268f, -0.1721315533f, -0.1187423244f, -0.3201888800f, -0.2703278959f, -0.2092395127f, 0.0813324079f, 0.5851467848f, 0.0906322971f, -0.2362198532f, -0.0435384437f, 0.0507991388f, 0.1037627906f, -0.1541467905f, 0.1705143601f, -0.5019838810f, -0.0953677371f, 0.1440690011f, 0.3475471437f, -0.1249678060f, 0.2415585667f, 0.1576175690f, -0.1135563478f, -0.1005862802f, 0.0737476200f, -0.2421643585f, 0.0862720162f, -0.1036700904f, -0.0333727635f, -0.0016715691f, 0.1221960112f, 0.3043698072f, 0.1332537234f, -0.0632860735f, 0.1373865902f, -0.1928099692f, 0.0331321582f, 0.2167607993f, 0.3373585641f, -0.1146230921f, 0.1975335032f, -0.1238275096f, -0.3340256512f, -0.3161403239f, -0.0285803042f, -0.3074724376f, 0.4575383961f, 0.1396663934f, 0.1385269314f, 0.1871810704f, 0.1571802795f, 0.3134545386f, 0.1060016230f, 0.0725398585f, -0.2702964246f, 0.2089131325f, 0.0063956962f, -0.0093553113f, -0.1488638371f, 0.3108812869f, -0.0243207812f, -0.0506161414f, 0.1020464450f, -0.0824222267f, 0.0941255689f, -0.0372227691f, -0.1972653419f, -0.1501577049f, -0.1873396486f, 0.2930393815f, -0.0327170789f, 0.1675658971f, -0.1372221410f, 0.0040470157f, 0.2788829803f, 0.0868509486f, 0.2053516954f, 0.0750130415f, -0.1547532082f, 0.1276438832f, -0.0082250936f, 0.2405849099f, -0.2377415746f, -0.1528986841f, -0.0799693689f, -0.2981118262f, 0.1265660971f, 0.1508193910f, -0.1215313151f, 0.1444466412f, -0.0029335709f, -0.2152067274f, 0.0937154517f, -0.1309799105f, -0.3550014496f, -0.0408714302f, 0.3371716738f, -0.0836060494f, -0.0424508676f, 0.0265634861f, -0.2485850304f, 0.0198345277f, 0.1250693351f, -0.2694539726f, 0.0164800882f, 0.1037245691f, -0.1305657774f, -0.0549141318f, -0.1312938333f, 0.1268254369f, -0.3410771191f, 0.2030779123f, -0.2668396235f, 0.3244194090f, -0.2079348117f, 0.1367421150f, -0.0581165776f, -0.4260603786f, 0.0212462191f, -0.1124456599f, -0.0125841219f, 0.0853962824f, -0.0340513699f, -0.1573636830f, -0.1889088750f, 0.1228802204f, -0.0376385935f, 0.1885224581f, -0.1601209193f, -0.0243456047f, 0.0746311322f, -0.1044108644f, -0.1970423460f, 0.4093329608f, -0.0091768252f, 0.0369269215f, 0.2649761438f, 0.1244219542f, 0.1507349014f, -0.0795643777f, -0.1598912030f, -0.1914084554f, -0.0990502313f, -0.0605864786f, 0.1526186913f, -0.3344135284f, 0.2498455644f, -0.0380410440f, 0.1274167746f, -0.0920258090f, -0.2190293819f, -0.0211777929f, 0.0097282669f, -0.3698549867f, 0.0300142001f, -0.1920648217f, -0.0498462394f, -0.3252848089f, -0.0237574745f, 0.2569126487f, 0.0694221854f, 0.1369126141f, -0.0265388656f, 0.0783409327f, -0.0687204674f, -0.0527156964f, -0.1301096976f, 0.1645839363f, -0.0806801096f, 0.0833588019f, 0.2230028510f, -0.0103640864f, 0.0335353501f, 0.1232308075f, -0.6050231457f, 0.0493599623f, 0.1922567636f, 0.4826295674f, 0.1331517547f, 0.1008023173f, -0.3937028348f, 0.0136435432f, 0.0005269322f, -0.1562219858f, -0.0676017329f, -0.1752568632f, -0.2623934746f, 0.4375067651f, 0.3458090127f, 0.0967819691f, -0.2147807181f, 0.0783190206f, -0.2674821317f, -0.2824601829f, -0.0113378894f, 0.0423829556f, 0.0609321669f, -0.0699365735f, -0.2001200914f, 0.2357221097f, 0.1406197846f, 0.2392641455f, -0.4156442583f, -0.1065720692f, -0.0892060548f, -0.0306944586f, 0.1812676042f, -0.2055029422f, -0.2365409434f, 0.1228500158f, 0.0543056950f, -0.3182047307f, -0.0258159339f, 0.1501864046f, 0.0605385751f, -0.1783766299f, 0.2446925491f, -0.1341779232f, -0.2695288658f, -0.2911592722f, 0.1341542304f, 0.2711688876f, 0.1551387906f, 0.2573480010f, -0.0247990564f, -0.1014605984f, -0.3332079053f, -0.1957047731f, 0.1753368825f, 0.1422599852f, -0.0157634560f, 0.0400507972f, 0.0665867850f, 0.0506652705f, -0.2666096687f, 0.0065663341f, 0.1004268229f, 0.2890875936f, -0.0677088648f, 0.3674062490f, -0.0084354049f, -0.0913276598f, 0.0096605336f, -0.0811182857f, 0.0981262177f, -0.1037309691f, 0.0248809904f, -0.0063349581f, -0.1723836213f, -0.0444910489f, 0.0736387447f, 0.0938082933f, -0.0436764732f, -0.0334693156f, 0.1805201620f, 0.1641172618f, 0.1693787873f, -0.0973121077f, 0.0406586304f, 0.2181034386f, -0.2700025439f, 0.0862633809f, 0.1748157740f, -0.1992947757f, -0.1562389582f, 0.2359372377f, 0.2195436358f, 0.0842617825f, 0.1060803682f, -0.2733388841f, 0.4597595334f, 0.1565756798f, 0.1219591573f, 0.1820853204f, 0.2232950926f, 0.1035487130f, 0.1295879930f, -0.1180534810f, -0.1565718204f, -0.3231838346f, -0.0191018954f, 0.1509859264f, 0.1671882570f, 0.1806365550f, 0.1268194616f, -0.1109409630f, 0.1000407040f, -0.2223946005f, 0.1998368055f, -0.2006920725f, -0.0394493788f, 0.1470760107f, 0.5105643868f, -0.0926022530f, 0.1083198115f, -0.0069929571f, 0.1175845116f, -0.0155343292f, -0.1083289981f, -0.1964748502f, -0.0129810087f, 0.1763164848f, 0.0329795666f, 0.1771260947f, 0.3091348410f, 0.1195078418f, -0.2586059570f, 0.1480109543f, -0.0673656315f, -0.1620874405f, 0.1816041172f, 0.1223933622f, -0.0654706284f, 0.1921297610f, -0.0467382409f, 0.0678843260f, 0.3131199777f, -0.0991408378f, -0.0584063157f, 0.1034328416f, -0.1974107027f, -0.3036434054f, 0.0123149175f, -0.2354247570f, -0.0338604376f, -0.0296245646f, -0.1294749528f, -0.4557516873f, -0.4748529494f, -0.2727102637f, 0.2843711078f, 0.3283265829f, 0.4394065738f, 0.2360613793f, 0.0967446938f, 0.1307241917f, -0.0453725904f, -0.0940977708f, 0.1081203744f, 0.1423121840f, 0.3640347123f, 0.1367917955f, -0.0463313013f, 0.3512797058f, -0.0351257734f, -0.0550503395f, 0.1616279483f, -0.3470629454f, -0.2361877412f, -0.0821642727f, -0.2467824817f, 0.1032981500f, -0.0415039025f, -0.0451894701f, -0.0596519783f, -0.1495750546f, -0.1149184927f, -0.1703012586f, -0.3806038499f, 0.2941674292f, 0.2981794477f, 0.1485846490f, 0.0447086245f, -0.1405093074f, -0.0515141264f, 0.1088156998f, -0.1676720530f, -0.3339479566f, 0.3695812523f, 0.1324339509f, 0.1589536518f, 0.1145010814f, -0.1869849265f, -0.3830857575f, 0.1549625546f, -0.1814483404f, 0.1637082696f, -0.1938120872f, 0.3937360942f, -0.1623989493f, 0.1499933302f, 0.0321640112f, -0.1311009377f, -0.1680778414f, 0.0444943979f, -0.2531829178f, 0.0488384888f, -0.0335544869f, 0.0996590257f, 0.2535990179f, 0.0995144621f, 0.0032306833f, -0.2334066629f, 0.0010887383f, 0.0230302773f, 0.0480757318f, -0.1619730890f, 0.2177811265f, -0.1547236592f, 0.4828535020f, 0.0949108154f, -0.0111691570f, -0.0119632622f, 0.1054410338f, 0.0396757126f, -0.0823854282f, 0.0137877204f, 0.1050776318f, 0.0758349970f, 0.0472558662f, 0.3826254010f, -0.2651085258f, -0.1195128560f, 0.0287676081f, 0.2611248493f, 0.2093829811f, -0.3172975779f, 0.2022187263f, -0.2609999776f, 0.0506801195f, 0.2589257658f, 0.0152780637f, 0.1790052056f, 0.0350427888f, -0.1605460644f, 0.1236581430f, -0.2443589568f, -0.0647070035f, 0.0724712536f, -0.1217465550f, 0.1423612088f, 0.3093595803f, -0.0902421400f, 0.0972933024f, 0.0455409139f, -0.1565748751f, -0.2006698847f, 0.0589545406f, 0.0317902341f, 0.0609895326f, -0.2263492346f, -0.0908079594f, 0.1693290323f, -0.0700622723f, -0.0661608204f, 0.0516798273f, 0.0138793550f, -0.1286818087f, 0.0154857486f, -0.2338377237f, 0.0395544209f, -0.0187346488f, 0.0995106027f, -0.0482375510f, -0.1556261331f, 0.2829507887f, -0.0476207770f, 0.1775884479f, -0.1550043523f, 0.1284753531f, 0.0735460818f, -0.1667107791f, -0.1459675282f, -0.0777206719f, -0.0501167439f, 0.4228281677f, -0.1796637028f, -0.2202629298f, 0.0812185928f, 0.0727536380f, -0.1801496595f, 0.1664704680f, -0.0418950394f, 0.0081747044f, 0.1399545223f, -0.1996571869f, 0.2762160897f, -0.4156019688f, 0.0924281031f, -0.1124358997f, -0.2938013673f, -0.2881667912f, 0.3676333725f, -0.0810179189f, 0.1759240180f, 0.0099009210f, -0.0418971181f, 0.0715889782f, 0.1839627028f, -0.2126158029f, -0.0186989382f, 0.1856558621f, 0.1184925437f, -0.1876164824f, -0.0793366283f, -0.2796914577f, 0.0585096888f, 0.0185407121f, -0.0117634339f, -0.0152647495f, -0.3957122266f, 0.0073210420f, 0.1776771247f, -0.0408499762f, -0.0664476380f, 0.2379562855f, -0.2213989794f, -0.0212846939f, 0.3712891638f, 0.2524515688f, 0.1940765083f, 0.0421804860f, -0.1315452158f, 0.1073404625f, -0.3505962491f, 0.0435080118f, 0.1966500431f, -0.2623320818f, 0.0621557869f, 0.4209806323f, 0.1269555241f, 0.1935655326f, 0.0928723812f, -0.0125588346f, -0.1260538548f, -0.0393920280f, 0.2176791728f, -0.2226064056f, -0.0796841234f, 0.0868082494f, -0.2480683029f, -0.0312951468f, -0.1935717314f, -0.1303688735f, -0.2364941239f, -0.0618871562f, -0.0386851206f, -0.1080250442f, -0.0775382221f, 0.0638985932f, -0.1617680788f, 0.0712944195f, 0.0447965190f, 0.2757556140f, -0.0163410660f, 0.1081345081f, 0.0640838221f, 0.0891117528f, 0.0170956049f, -0.1942492574f, -0.0086788805f, 0.0811562911f, -0.2209990025f, 0.0793600753f, 0.0226640832f, -0.4839245081f, -0.0121967113f, 0.0207407493f, 0.3749574125f, -0.1394133121f, -0.1140295714f, -0.1832633615f, -0.4064007401f, -0.1582916975f, -0.4113166630f, 0.1407537162f, -0.0021523768f, -0.1147541553f, -0.1467218846f, 0.2682348788f, -0.0517403558f, -0.0204402693f, 0.0929414332f, -0.0457871519f, -0.1341294497f, -0.2655623257f, -0.3458077908f, 0.3103560507f, 0.1520011425f, -0.0933829173f, -0.0020674318f, 0.0805519670f, 0.1362880617f, 0.1697718650f, -0.0586288497f, 0.0514776446f, -0.1583106220f, -0.0374873355f, 0.1036739796f, -0.1875898987f, 0.0584612936f, 0.3005313277f, 0.1130723804f, -0.0247345567f, 0.1793778241f, 0.1570563316f, -0.1324355006f, 0.1286817193f, 0.2273439765f, -0.1683822125f, -0.1768208593f, 0.1116687953f, -0.3556334376f, 0.0449276082f, -0.0547788143f, -0.1735608280f, -0.0753498450f, -0.2019880414f, -0.3727799952f, -0.0987351611f, -0.2077332735f, -0.0291567743f, -0.1994323432f, -0.1010239348f, 0.2060424685f, 0.0027638518f, -0.1109285280f, -0.0586547777f, -0.2968905270f, -0.0457345098f, -0.4049275219f, -0.3700351119f, -0.0667139515f, -0.1012876406f, 0.0365385190f, 0.0971312970f, 0.0844167396f, -0.4399865270f, -0.1351141632f, -0.1364466995f, 0.2192657739f, -0.0116390567f, -0.0722122192f, 0.2227370292f, 0.0511889569f, 0.0780681893f, 0.2463463843f, -0.2028016299f, -0.1065123603f, -0.0187703110f, 0.8085163236f, -0.1043575853f, 0.0961626321f, 0.1038939282f, -0.2909712195f, 0.0414712392f, 0.0794594660f, 0.2351398468f, 0.5693538785f, -0.3692766726f, -0.1409963965f, -0.2739974856f, 0.2036025673f, -0.0087819565f, -0.2451009899f, -0.1253985316f, -0.0269597229f, 0.2342264205f, 0.3758773804f, 0.0170397405f, 0.2445130944f, 0.3083909452f, -0.0466926396f, -0.3077059984f, 0.4970785677f, -0.0852211267f, 0.4919631183f, -0.0790735483f, 0.2098286152f, 0.4613376856f, -0.3311211169f, -0.1853718907f, -0.1179216877f, -0.1938914955f, 0.0285921507f, -0.1064610854f, -0.4586978853f, 0.0784528702f, 0.1211125851f, 0.3448710740f, -0.3657632470f, -0.0652088299f, 0.2799564600f, -0.1755543202f, 0.5175584555f, 0.1065180153f, 0.2410799265f, 0.4028424919f, -0.1321211606f, -0.0784041733f, -0.2719411850f, 0.5252802968f, -0.3589708805f, -0.1118381098f, 0.0605343096f, -0.2580666542f, -0.2339312583f, -0.2758722603f, 0.3736776412f, -0.3262532353f, 0.3238777816f, -0.4008172154f, -0.0580656826f, 0.1092283428f, -0.0135685308f, 0.3631221056f, -0.2550973296f, -0.0590463616f, -0.3166838288f, -0.0095223067f, -0.2700667977f, -0.0479783751f, -0.3682466447f, 0.0269858520f, 0.2101410627f, -0.1603194028f, -0.1959633082f, -0.0155776199f, -0.0419004969f, -0.0513090715f, 0.0365458392f, 0.0099454280f, -0.0463945381f, 0.0325588956f, 0.0654772446f, 0.1054698676f, 0.6318325400f, 0.1342783719f, -0.1988725066f, 0.0902043581f, -0.1621205658f, -0.1036839560f, -0.1247221380f, -0.4149039388f, -0.2462267727f, -0.1388191581f, -0.1734758019f, -0.0074950987f, 0.1122810766f, 0.2923948169f, 0.2152248323f, -0.1487633139f, -0.0952420607f, 0.0924180821f, -0.0938110575f, 0.3594669104f, 0.2247643024f, 0.1985536367f, 0.0122846328f, 0.0596039593f, -0.2613429427f, 0.1433122605f, 0.1941394657f, -0.0288740117f, 0.1259874851f, 0.0394541807f, -0.1054816917f, -0.0517855771f, -0.2180178314f, -0.1425516456f, -0.1550103575f, 0.0306450743f, -0.0669374838f, -0.1836923957f, -0.1171869338f, -0.1964642107f, -0.0094311880f, -0.0852467343f, -0.0013700055f, -0.2597060800f, -0.0771605596f, -0.2899142206f, 0.1308095157f, -0.2998084724f, 0.1545561701f, -0.0901080295f, 0.0124041587f, -0.1693928093f, -0.1185070649f, -0.0728907660f, 0.0285723750f, 0.1504453421f, 0.1116968468f, 0.0299690925f, -0.1818587929f, 0.1018088832f, 0.1790103912f, 0.1029642522f, -0.2524357140f, -0.2202927470f, 0.1648182273f, -0.3158427179f, -0.0858395323f, -0.1070792675f, -0.0385838524f, 0.0176570360f, 0.0450458750f, 0.0934873372f, 0.0175412465f, 0.3877175450f, 0.3421324492f, 0.1071032584f, -0.1576148421f, -0.1545301676f, 0.1617448330f, -0.0396658331f, 0.0509579033f, -0.0724837556f, -0.1180991381f, -0.0946565121f, 0.3351074457f, 0.2905063331f, 0.0616615452f, -0.4293330014f, -0.1333243251f, 0.1219773516f, 0.1981723458f, -0.1444256157f, -0.3700214624f, 0.1757844090f, -0.2061288208f, -0.3031421304f, 0.1070406809f, 0.1377678514f, 0.2859437168f, 0.2252459973f, -0.1301838458f, 0.3489178717f, 0.0569319353f, -0.1648815125f, 0.1479218751f, 0.0532743782f, 0.1242759824f, 0.0993553698f, 0.0821477175f, -0.3333937824f, -0.1212562546f, -0.1367949396f, -0.3563675284f, -0.1558544338f, -0.2309067547f, 0.2117323726f, 0.3182223439f, 0.1604498029f, -0.2070381641f, 0.0196340010f, 0.0117750745f, 0.3679090142f, -0.2485828698f, 0.1643852144f, 0.1620769799f, 0.0410574600f, -0.2996687591f, 0.1211101189f, 0.0185432397f, -0.0878020152f, -0.0765119642f, 0.0863079205f, 0.0964418501f, -0.0330293663f, -0.1998982280f, 0.0890787020f, 0.1672269106f, 0.0385290049f, -0.1127803773f, -0.0632809326f, 0.0450641923f, -0.0347028002f, -0.0140298568f, -0.2154675126f, -0.0295549314f, -0.2574189305f, 0.1203266233f, -0.0859663486f, 0.1724783480f, 0.0292502046f, -0.0237784144f, 0.0264063366f, -0.2907691896f, -0.0492195822f, -0.2050520331f, -0.0165631752f, 0.1742379963f, -0.1713454872f, -0.1978755742f, 0.5429760218f, 0.0344655327f, 0.2282564342f, -0.0159180779f, 0.3038367927f, -0.2463112772f, -0.2613870800f, 0.0467961319f, 0.0928548798f, -0.2215240747f, -0.1913217306f, -0.0875725821f, -0.0528352000f, -0.1073119715f, 0.1264939457f, 0.1300661266f, 0.4449481964f, -0.0375289582f, -0.2889406979f, -0.0022275175f, 0.3057671189f, 0.0209415425f, -0.2316741496f, -0.0620693527f, 0.1168328598f, 0.1574373990f, -0.0172143951f, -0.0265873279f, 0.0344385169f, -0.0514128394f, -0.0437847488f, -0.0057185898f, -0.0013174474f, 0.0854107067f, 0.0648944005f, 0.0596680194f, -0.1835635602f, 0.2923232019f, -0.0085551655f, 0.2153102756f, 0.1955532730f, -0.1409800798f, 0.1223013699f, 0.0599980913f, -0.2196547240f, 0.1362069845f, 0.2339867502f, -0.0695633441f, -0.2424260974f, 0.1458206922f, -0.2216198146f, 0.4151211679f, -0.1118778065f, -0.0819194540f, 0.2023496777f, 0.0220735073f, -0.2594599128f, 0.0688423663f, -0.0282580499f, -0.1597062796f, -0.2361750603f, 0.0838553458f, 0.1839017123f, -0.1167616621f, -0.0551288985f, -0.2614704967f, -0.0856454745f, -0.1952704638f, 0.1496527195f, 0.1099349409f, 0.1314013302f, -0.0241987668f, -0.2702384591f, -0.0541009642f, 0.1337810457f, -0.3734249771f, -0.2726072669f, -0.2817884684f, -0.0910172686f, 0.1567895710f, -0.1627474427f, 0.0179613661f, 0.2349654585f, -0.1680849642f, 0.2171095610f, 0.0322889499f, 0.2278569043f, -0.1199261248f, -0.0337201953f, 0.1456496269f, 0.0316907950f, 0.1376013309f, -0.1256610453f, -0.2693043649f, 0.1981830150f, 0.0038860126f, -0.0023889933f, -0.0001218907f, -0.0829068571f, 0.0255084056f, 0.1558933854f, 0.0563358702f, 0.1394743472f, 0.2362030745f, -0.2240134180f, 0.2147176266f, 0.0908480063f, 0.4724334180f, 0.1831991225f, 0.0990550518f, -0.3538986742f, -0.1024156585f, -0.0986225232f, 0.2197963744f, -0.0927089155f, -0.1120648608f, 0.1326435804f, 0.0456918217f, 0.0624657720f, -0.1282813996f, -0.1163171828f, 0.2438007593f, -0.0709524155f, -0.1878546327f, 0.2187659442f, 0.6504037380f, -0.1465593874f, 0.1547249556f, 0.1010877043f, 0.1099395603f, -0.1758391410f, -0.2606192231f, 0.2331342399f, 0.2884465456f, -0.1667076945f, 0.2638038099f, -0.0567510761f, 0.2395850867f, 0.3555700481f, -0.0014699050f, 0.0936899930f, 0.0258712899f, 0.1534215808f, -0.0747180060f, 0.1844095439f, -0.1973788291f, -0.1266396195f, 0.2764392495f, -0.1022168323f, -0.1390602291f, -0.0133942273f, 0.1665312201f, 0.1884483695f, -0.0160634592f, 0.0634962693f, -0.2161424607f, 0.1928384900f, 0.2215647250f, -0.0147866402f, 0.1661291718f, -0.1924048960f, 0.1197912991f, -0.0882282257f, -0.1593471617f, -0.2089848220f, 0.0489566214f, -0.0293740798f, -0.1248804480f, 0.1188984290f, 0.0465094931f, -0.1540017724f, 0.1295424402f, -0.0740460753f, 0.2804791927f, -0.2116562128f, 0.1839256734f, 0.1563687325f, -0.0802683979f, 0.2456054389f, 0.0534409098f, -0.0592324659f, 0.0500280112f, -0.1380152553f, 0.0988029167f, -0.1207569987f, -0.1609785557f, -0.0964338705f, -0.3429862857f, 0.2450720370f, 0.1928125322f, -0.1727559865f, 0.0233237799f, -0.3467278481f, -0.2744100690f, 0.3992336094f, -0.3520107269f, 0.0102740424f, -0.0306742191f, -0.0127485385f, 0.1062542945f, -0.0754834935f, 0.2463165075f, -0.0145360930f, 0.2415355742f, -0.0362049975f, -0.3064368069f, -0.2563305199f, 0.0173754785f, -0.0842638984f, -0.1435676664f, 0.1190744862f, 0.3919634521f, -0.0073358379f, -0.3571134806f, -0.0097932452f, -0.0151360426f, 0.3801733553f, 0.0090208547f, 0.1352549791f, -0.0173894204f, -0.3893239796f, 0.0397545323f, 0.2613652945f, -0.0682348907f, -0.3165256381f, -0.1665010601f, -0.0129119325f, 0.1763364077f, 0.1401017606f, 0.0393611528f, -0.1036133543f, 0.0734357089f, -0.1653173715f, 0.2013888210f, -0.1840192229f, -0.3800236285f, 0.0508233793f, 0.0870282874f, 0.2316150516f, -0.0808463767f, -0.1896056235f, 0.0369971246f, -0.3331896365f, 0.2042889297f, -0.0225089528f, -0.1586423963f, 0.2117337584f, 0.1862542033f, 0.1585175097f, -0.0237953346f, -0.0985963270f, -0.0132715497f, 0.0347651467f, -0.1368721426f, 0.2402459532f, 0.2045342326f, 0.0068108360f, 0.1365003139f, 0.0034615241f, 0.2149214298f, -0.1359969527f, -0.0191811770f, -0.0332927331f, -0.0019023472f, -0.1442487389f, 0.1576612741f, 0.0507411472f, 0.0359113067f, 0.1091071069f, 0.1200129613f, 0.2128338963f, 0.0163039770f, -0.2600577474f, -0.1015950143f, -0.0251267832f, -0.0798250437f, 0.2566530108f, -0.2320321798f, -0.0447585993f, 0.3023418188f, -0.2464328110f, -0.3912061751f, -0.0820132196f, -0.2590686381f, -0.1471654326f, -0.0713240355f, 0.3168797195f, -0.1992694288f, 0.3399912119f, -0.1913546175f, -0.3924734294f, -0.0444086231f, -0.1193944141f, 0.1186819524f, -0.2066278756f, -0.0844187140f, -0.0017002829f, 0.0695206970f, -0.0275441874f, 0.2567320168f, 0.2195382714f, 0.1155770272f, 0.0871015862f, -0.0733108744f, 0.1566527486f, 0.1350199431f, 0.0402859971f, 0.1411243528f, -0.2838740647f, -0.1523270756f, 0.2198579013f, 0.0454975739f, 0.0455305651f, 0.1461168826f, 0.1308131814f, -0.0044775642f, 0.0123145981f, -0.1497852057f, -0.0037263627f, -0.1555176526f, -0.1669630557f, -0.1252033412f, -0.2858777642f, 0.6337773204f, 0.2700579762f, -0.0967396274f, 0.6526970267f, 0.0063826181f, 0.1124290973f, -0.4552188814f, -0.1952027828f, 0.0374566987f, 0.1566339135f, -0.0434909128f, 0.1483746171f, -0.3519475460f, -0.0508242808f, 0.0698039085f, 0.8409702778f, 0.4873878956f, 0.1996781975f, -0.1411980540f, -0.1430784166f, 0.0881972313f, -0.1850725412f, 0.4763745070f, -0.5464826226f, -0.2382619232f, 0.0923143104f, 0.1595827192f, 0.3448826671f, -0.0752032325f, -0.1254606098f, 0.1971473992f, -0.3687565923f, -0.4407147467f, -0.3173649907f, 0.1694151312f, -0.0954562351f, 0.5082443357f, 0.4250700474f, 0.2796111703f, 0.2860093117f, -0.1898514479f, 0.4060479403f, -0.2924591899f, -0.5960059166f, 0.1420659274f, 0.3211641610f, -0.1662454307f, -0.3248474002f, 0.5025276542f, 0.0825971663f, -0.1839262843f, -0.4401489794f, 0.0983975157f, -0.1882173121f, 0.6887066960f, -0.0435177684f, 0.1098667309f, -0.2898305655f, -0.1659257710f, 0.2059605271f, -0.1237325221f, 0.2873399258f, 0.4905736446f, 0.0279349051f, -0.0296763740f, 0.1372962445f, -0.1653805673f, 0.0235676598f, -0.0867894739f, 0.0441189073f, 0.2315413654f, -0.1259292662f, 0.3595313430f, 0.2372125089f, 0.1279657036f, 0.0348364115f, 0.1045797840f, -0.2691951692f, 0.5055147409f, 0.1974002570f, -0.0418820791f, 0.2452945709f, -0.4238593578f, 0.1313796639f, -0.0757629946f, 0.0585222356f, -0.0316462740f, -0.1174183339f, 0.0777341574f, 0.0590659715f, 0.0312038027f, -0.0771790221f, -0.0024818573f, -0.2037694603f, 0.0967718437f, -0.0764938220f, 0.0822359473f, 0.2640921474f, 0.3414237201f, -0.1764285266f, 0.3701393306f, 0.0298781507f, -0.0551960617f, 0.1191144809f, -0.1032686830f, 0.2013413906f, -0.0490011089f, -0.0417451523f, -0.1184034944f, -0.0201859362f, 0.2117269784f, 0.3109543025f, 0.2844294608f, 0.0278990325f, 0.1808189005f, -0.0733147562f, -0.2127020359f, 0.2319590151f, -0.0955254063f, 0.0983286723f, 0.1240045577f, -0.1790391207f, 0.2153010517f, -0.0399178937f, -0.1057981774f, -0.1071858630f, -0.4572776556f, 0.1858725250f, -0.0475796238f, 0.1211680472f, 0.4491999149f, 0.0705249086f, -0.0030778847f, -0.3088622689f, 0.1697195321f, 0.1606642455f, 0.0527944714f, -0.1888870001f, 0.5982149839f, -0.0881433040f, -0.1342799217f, 0.3975386322f, -0.0630943328f, 0.0598010719f, -0.5829200149f, 0.0044162516f, 0.2157125026f, -0.0329770073f, 0.1155319139f, 0.3526735008f, 0.1691225618f, -0.4686804414f, 0.2562299967f, 0.0778615624f, 0.0047642840f, -0.0599521026f, 0.1264596879f, -0.0192075092f, -0.0241728555f, -0.0054058782f, 0.2858079970f, -0.3247965574f, -0.0773742720f, -0.0113743795f, -0.3208462000f, 0.1408491284f, -0.2531569600f, 0.0522683077f, -0.0962183923f, 0.0268287696f, 0.0078582410f, 0.2012593150f, -0.1118220538f, -0.3146729469f, -0.3879881203f, -0.2940261364f, 0.0077489237f, 0.0322156474f, -0.1931260973f, 0.1133869961f, 0.0869450793f, -0.1701881289f, -0.1552734375f, -0.1122540310f, 0.2134063095f, 0.2934163511f, -0.0699973106f, -0.1773751229f, -0.1154169887f, -0.1693455279f, 0.0151353907f, 0.0747271925f, 0.3709914982f, 0.1029773876f, 0.1551170200f, 0.1686989218f, -0.2976084650f, 0.3192375600f, -0.1111171395f, 0.2160194516f, -0.0881858170f, -0.1081387177f, 0.1437254101f, 0.1947889626f, 0.1213277653f, -0.0215339959f, -0.2073560059f, 0.1413328946f, 0.4983016253f, 0.0706309304f, 0.1202555373f, -0.0719535798f, 0.1476387680f, 0.0268267356f, -0.0867369175f, -0.1605554670f, -0.1300659478f, 0.2162802070f, 0.0938252583f, 0.0132886078f, -0.0141068408f, 0.0999203771f, 0.3908361197f, -0.3587379158f, -0.0540417992f, 0.2868817747f, 0.1684514284f, -0.3432053626f, 0.0064693731f, 0.0200247578f, 0.0679873824f, 0.3619094193f, -0.2786027491f, 0.0510265157f, 0.1418181807f, 0.0397924334f, -0.0037963730f, -0.2663124800f, 0.1754656583f, -0.2292825878f, -0.2632637322f, -0.0282056611f, -0.0020182182f, -0.1040260792f, -0.3108322322f, -0.0641908646f, 0.3048559725f, -0.2375925928f, 0.2819925845f, 0.0916289017f, -0.1634083539f, 0.2253940105f, 0.2422322482f, 0.0142308790f, 0.0391853116f, 0.0068714209f, 0.1560857296f, -0.2828528881f, 0.0598870255f, -0.0264192242f, 0.1365607232f, 0.0061847586f, 0.1023329943f, -0.1365275830f, -0.0439347960f, -0.1938024908f, 0.0120025370f, 0.1987374723f, -0.0153487101f, -0.1638694555f, 0.0105735166f, 0.1953570396f, 0.1355527043f, 0.1880565882f, -0.1293141544f, -0.1022097021f, 0.2716910541f, 0.0833372921f, -0.1773682386f, -0.1292410195f, -0.2276534587f, -0.0692759678f, -0.0590176173f, -0.0439788997f, 0.3216142058f, -0.1801678389f, -0.0829869807f, -0.0802734420f, -0.1177055091f, 0.1867080331f, -0.1600245982f, 0.2090223879f, 0.0686980784f, 0.1546914577f, 0.0250818618f, -0.2180260867f, -0.0438822173f, -0.1133178473f, -0.6753748655f, -0.0752974749f, 0.0084355157f, -0.1133822724f, 0.0683401227f, -0.1402902901f, 0.0961382911f, -0.1406843960f, 0.3320098817f, -0.1933301687f, -0.0730777159f, -0.3001979291f, 0.0504445098f, -0.1526383460f, -0.1170966104f, 0.2782846391f, 0.0341165401f, 0.3480073214f, -0.2099527866f, 0.3099498749f, -0.2500514686f, -0.1097746342f, 0.0451163277f, 0.0031109119f, -0.1476784647f, -0.0461540110f, -0.0415031351f, 0.0436626859f, 0.2057466507f, -0.1115174741f, 0.1305481195f, -0.1217233241f, 0.1422220916f, 0.1985247135f, -0.3385936916f, 0.1152226478f, 0.0700442344f, 0.2652424872f, 0.2526864111f, 0.1344040483f, 0.3298817277f, 0.1992892176f, -0.1954178363f, 0.3678187728f, -0.1931349188f, 0.1242248043f, -0.4365600348f, -0.1048703864f, -0.0516847894f, 0.0079450766f, 0.1269160360f, 0.1608965546f, 0.2651510835f, 0.0710566938f, 0.4310606122f, -0.2458502799f, -0.0459569022f, 0.2594530880f, 0.0974829718f, -0.1140949503f, 0.1569936275f, -0.1561467201f, 0.0847888440f, -0.1788846701f, -0.0086471718f, -0.1719504893f, 0.1350395381f, -0.0252055712f, 0.1766682267f, 0.1539266258f, -0.0317781642f, 0.1956763864f, 0.0767523646f, 0.1443805248f, 0.0603426509f, -0.0744031295f, -0.0908159465f, -0.1339048296f, 0.2478961796f, -0.1658457667f, -0.1860483438f, -0.2775533497f, 0.0660946295f, -0.1969343126f, -0.0515479967f, -0.2640941441f, -0.1941980869f, -0.3469870090f, -0.0726474896f, -0.1296175867f, 0.0242730100f, 0.3403066993f, 0.1485534459f, -0.0661384389f, -0.3456721604f, -0.0689882040f, 0.3075897694f, 0.0227691345f, 0.2728746235f, 0.0729107335f, -0.3641624451f, 0.2216577679f, -0.1233028173f, -0.0563016757f, 0.3579723239f, -0.0041897562f, -0.1622095257f, -0.1354215443f, -0.0308829844f, 0.0993436277f, 0.1455973089f, 0.1479415596f, -0.1560560018f, 0.6070564985f, -0.2626269162f, -0.1356521547f, 0.1927842051f, 0.1270343214f, -0.0472153686f, -0.2190215141f, 0.0549522340f, 0.1419475079f, -0.2784200609f, 0.0227301251f, 0.0520616956f, -0.0709228516f, -0.0762070790f, 0.1007713750f, -0.0801496357f, -0.0474400707f, -0.0566604882f, -0.4127946496f, -0.0143514760f, -0.0520981215f, 0.4018377662f, -0.1585474759f, 0.0396763831f, -0.0785290524f, -0.3568748534f, 0.1025510952f, 0.0474235490f, 0.2931794822f, -0.0572313853f, -0.0478741452f, 0.2052526027f, 0.0407590643f, 0.0800157711f, -0.0216516852f, 0.2555915415f, 0.2288814038f, -0.5534475446f, -0.0932967961f, -0.0136786886f, -0.3257878721f, -0.0376939513f, -0.1303540617f, 0.3742934167f, 0.0921637937f, 0.1480090320f, -0.0286049284f, 0.0123203415f, 0.1115259901f, 0.5565952063f, 0.2829319537f, 0.0058638267f, -0.4571833611f, -0.8009316921f, 0.1764016300f, 0.0409567207f, -0.0433537140f, -0.1802813411f, 0.4841018915f, -0.4005140960f, 0.9930204153f, 0.1154772937f, -0.2360372692f, -0.2038545460f, -0.3638923764f, -0.0914858207f, 0.1180890128f, 0.3122827709f, 0.6113418937f, -0.2504442036f, 0.0634726807f, -0.6230618954f, 0.3801929653f, -0.1887889057f, -0.7672003508f, -0.3909233212f, 0.0260289740f, 0.2025015205f, 0.0013020859f, 0.1526490897f, 0.7095549703f, 0.0762854069f, -0.2627577782f, -0.0255708434f, 0.5538327694f, -0.2008709610f, -0.0826134384f, 0.3886774480f, 0.4372320771f, 0.0948352292f, 0.3781371117f, -0.2769069374f, -0.1048777103f, -0.2420011461f, 0.5143868923f, 0.5034548044f, -0.2360781282f, 0.1616750956f, -0.0409331545f, 0.3404617608f, 0.1995967776f, -0.2056886703f, -0.0949505791f, -0.0077961879f, 0.0755198821f, -0.2920018435f, -0.0637475103f, -0.0044896319f, -0.2381309271f, -0.2881177664f, -0.0615092032f, -0.1298096180f, 0.0861898139f, 0.0206241589f, -0.0917216837f, 0.0726713017f, 0.1713223606f, -0.0137436492f, -0.0103941299f, 0.1713752896f, -0.1329500228f, -0.0593572557f, 0.1677689701f, 0.2211757302f, -0.2674873173f, -0.1521138251f, 0.2193471342f, 0.1664412469f, 0.0178332347f, -0.1670663655f, -0.0168759096f, -0.1824131906f, -0.0776073560f, -0.3852422237f, -0.2264965922f, 0.3193164170f, -0.0315129310f, -0.0293429755f, 0.0861195400f, 0.1930770278f, -0.0812316015f, -0.2147190571f, -0.2976064980f, -0.1662222147f, 0.0517630465f, -0.3999260068f, 0.5216349363f, 0.3464988470f, -0.0819179192f, -0.0378306806f, 0.0970060006f, 0.2207952589f, 0.0485047661f, 0.0436609499f, 0.2939144373f, 0.0785661265f, -0.0396934003f, 0.1358609498f, -0.1377139390f, 0.1182851642f, -0.1279152185f, 0.0523026250f, 0.1045066789f, -0.0586698353f, 0.0729220659f, -0.0246863980f, -0.1431803554f, 0.1162357256f, -0.1280829459f, -0.0964824706f, -0.0504170097f, -0.1092342734f, -0.1890640408f, 0.0827094465f, 0.2158020437f, -0.1100770757f, 0.4136774242f, 0.1018362492f, -0.0610761940f, -0.3926457167f, 0.1394770443f, -0.2842621803f, 0.3428081572f, 0.3342013955f, 0.0513078570f, 0.3488678932f, 0.0530312434f, 0.1188661754f, -0.0258532930f, 0.3696992397f, -0.3707326949f, 0.1605317891f, -0.0099906558f, -0.1500447839f, 0.0410433225f, 0.1297694594f, 0.4355878830f, -0.0870184377f, 0.0376674794f, -0.0005577709f, -0.0954511911f, -0.1263848692f, -0.1244505420f, 0.3091067076f, 0.3129068911f, 0.0552305244f, -0.0494971983f, -0.1609847844f, -0.2756935656f, 0.0362507477f, -0.1030615717f, -0.1865341216f, -0.1485110521f, -0.1629181057f, -0.1944527626f, 0.0757835954f, 0.1647612751f, -0.2747454345f, 0.0887032524f, -0.1028484255f, -0.1289319694f, -0.3114423752f, -0.0974758863f, -0.1182357445f, -0.2772349119f, 0.0336832292f, -0.0717575029f, 0.1870722473f, 0.2807122171f, -0.1046556681f, -0.0198477730f, -0.1780673116f, 0.3735620677f, -0.0642923936f, 0.1160305366f, -0.1029757410f, -0.5450130105f, 0.0917921662f, 0.0562715121f, -0.1072489321f, -0.3377673328f, 0.2889809906f, -0.1158094630f, -0.1742628068f, 0.2721862495f, 0.2284562737f, 0.4552786648f, -0.0656588078f, 0.1122454852f, -0.0093892943f, 0.0927562192f, -0.1005385593f, 0.0132340407f, 0.2046246827f, -0.0335346907f, -0.0160240233f, -0.0283104070f, 0.1373841912f, -0.0116669759f, -0.0606208406f, -0.0813616887f, -0.3798898458f, -0.1126125157f, 0.1376114637f, 0.1186823621f, -0.2700872421f, 0.4407154620f, 0.1280215383f, -0.1581391245f, 0.2087722123f, 0.0811719894f, 0.1665676534f, -0.0782810450f, 0.2387602031f, 0.0822233707f, -0.2487961203f, 0.1426743865f, -0.1900324672f, 0.0077243880f, -0.1743550301f, 0.0013946660f, -0.2407409400f, -0.1816624254f, 0.0925851241f, 0.0707975775f, 0.2688773870f, -0.1172439978f, 0.1049504727f, 0.2017943710f, 0.1484168768f, 0.0777645558f, -0.0196980704f, -0.0598057956f, 0.0257198736f, 0.2516059875f, -0.1070388705f, -0.1029406562f, -0.4252172410f, -0.0622522868f, 0.2152265608f, 0.1357338578f, -0.1521980911f, 0.2460968345f, 0.0839125589f, 0.0190456975f, 0.4311417937f, 0.3013089299f, -0.3660652041f, 0.1690460443f, -0.5542822480f, -0.0285906978f, -0.1138236523f, -0.0602183677f, 0.0876966789f, 0.0564274378f, 0.0597990192f, 0.1440615058f, -0.3725594878f, -0.0680825934f, 0.1861685812f, 0.4221663773f, 0.0386892520f, -0.2524546385f, 0.0856999755f, 0.2762694657f, -0.1274859309f, 0.1714839488f, 0.0086822845f, 0.1630699486f, -0.0871973261f, -0.1175893620f, 0.0883559734f, 0.2097903639f, -0.0136909215f, -0.2567990720f, -0.0682211667f, -0.0217650775f, 0.1534804404f, 0.1799444705f, -0.2406257391f, -0.0044729509f, -0.1441150159f, 0.2236072570f, -0.3190962076f, -0.0364666209f, -0.1731992215f, 0.0398668721f, -0.0812392086f, 0.1443309784f, -0.0408972800f, -0.0775882453f, -0.0407603011f, 0.0372540429f, -0.0317078792f, 0.2815760374f, -0.0134929111f, -0.1915251613f, 0.0571496002f, -0.0737155601f, -0.0916814804f, -0.0895906091f, -0.1801673919f, -0.2661577165f, 0.1266453117f, -0.2882279158f, -0.1707926840f, -0.2869061530f, 0.1617039740f, 0.1808806062f, -0.2391742766f, -0.1036606357f, 0.2518406510f, -0.0772074610f, 0.1766260415f, 0.0565853715f, -0.1046119332f, -0.0650395378f, 0.2251100987f, 0.1644079387f, 0.0586070791f, -0.2017278820f, -0.1369053721f, -0.1856469959f, -0.0680781528f, 0.1525892764f, -0.0380924530f, -0.1381654143f, 0.1198046952f, 0.0263497196f, -0.0676181540f, 0.2294284403f, -0.2123532295f, -0.2307823002f, 0.2226827443f, 0.1135592088f, -0.0266416948f, -0.1971384734f, 0.0023627491f, -0.0807742104f, 0.5293121934f, 0.3106805682f, 0.1283530295f, -0.3557370305f, 0.1910346895f, 0.2729244828f, -0.3889243305f, -0.0939269885f, 0.1122442186f, -0.2460335642f, 0.2541316748f, 0.1305700392f, -0.2198022902f, 0.3280561864f, -0.2228119820f, -0.2222061604f, 0.2073846012f, -0.0265678558f, -0.0926735848f, 0.1002894044f, 0.0526686609f, -0.0678593293f, 0.1352349967f, -0.3210402429f, -0.0804780498f, -0.2438529432f, -0.2214973867f, -0.1028781235f, -0.1234860867f, -0.0082503110f, 0.2669488788f, -0.1454935819f, 0.0510705896f, 0.0259367563f, 0.1282305121f, 0.1383334398f, -0.0127684474f, -0.0686821342f, 0.1871089339f, 0.0521017201f, -0.0588669442f, -0.1208020821f, -0.0848182067f, 0.1288741529f, 0.0721231401f, 0.0754838139f, 0.1347323954f, 0.1175222397f, -0.4278628528f, 0.2878634632f, -0.1373094618f, 0.1740756929f, 0.1466171443f, -0.0886351913f, 0.1897762865f, 0.2881107032f, -0.2208396941f, -0.0479089953f, -0.3637348413f, -0.0449028760f, -0.0563371032f, 0.0977880061f, -0.0366039649f, -0.2723496854f, 0.0869398043f, -0.2320178449f, -0.0610749982f, 0.1943648905f, -0.3399767280f, -0.1225415766f, 0.0554291755f, 0.1341684014f, 0.0893690959f, -0.2225261778f, -0.0223033689f, 0.0257060453f, -0.1339131147f, -0.0875765756f, 0.0623657182f, -0.0180776566f, 0.0825570077f, -0.0062720478f, -0.3233087659f, -0.0473940633f, 0.0895076469f, 0.2979246974f, 0.2273380756f, -0.3038401008f, 0.1678568870f, -0.1718906313f, -0.1127116159f, -0.0228031930f, 0.1199834496f, 0.1815880388f, 0.3114469945f, -0.0324115679f, -0.3605098128f, -0.2092591524f, 0.1416834146f, 0.0705449954f, 0.2510843873f, -0.0819830149f, 0.2017750889f, 0.3224650025f, -0.4508404434f, 0.0985376909f, 0.1517704278f, -0.3843604922f, 0.0610708483f, -0.1085825041f, -0.1318457127f, 0.0801195204f, 0.0480269119f, 0.1369482130f, -0.1563728750f, -0.0026596123f, 0.1221983582f, 0.2662580013f, 0.0214441530f, -0.2490502894f, -0.0594542585f, 0.2607901096f, 0.1664836705f, 0.3601186574f, -0.2278102636f, -0.0429432876f, -0.3466173112f, -0.2410057783f, 0.2164674997f, -0.1772377342f, -0.0067831716f, -0.3521162271f, 0.3723931015f, 0.0822334737f, -0.1399325728f, 0.0607329421f, 0.3190986216f, 0.0628050417f, -0.0438312516f, 0.0977437496f, -0.1049430370f, 0.2074405104f, -0.0017620256f, 0.0554873794f, -0.1517882943f, -0.2747653425f, 0.2106656283f, 0.0927164927f, 0.0972616896f, -0.1897927672f, 0.1622873098f, -0.0421835668f, 0.0137416152f, 0.0234989785f, 0.1912199408f, -0.0884301215f, 0.2398673743f, 0.2438634038f, 0.2920654416f, -0.2222916633f, -0.0855442658f, 0.0360731483f, -0.0539839938f, -0.0967297629f, 0.3857084811f, -0.0046096211f, 0.5276426673f, -0.1698140204f, -0.0137177771f, -0.0862621740f, -0.0209556855f, 0.1248504370f, -0.2820056379f, -0.1414452195f, 0.1310218126f, 0.1284625232f, 0.4201743603f, -0.1097582951f, 0.3936967552f, 0.0106188189f, -0.1405522823f, -0.0294828545f, -0.2523380518f, 0.0543423407f, -0.0641203523f, 0.0929470211f, -0.0202101078f, 0.0211045910f, -0.1582316905f, 0.1031128839f, 0.0862464830f, -0.1494406909f, 0.0297568254f, 0.0906474292f, 0.1148409396f, 0.0022088396f, 0.0880290121f, -0.2984830141f, 0.0544850267f, -0.0147755081f, -0.1002285555f, 0.2325172275f, -0.1372199059f, 0.2508178949f, 0.1255290657f, 0.1521677226f, -0.1185324192f, -0.4306896925f, 0.2400365919f, -0.1496294886f, -0.4196481705f, -0.1855324060f, 0.0745211318f, -0.3037836254f, 0.3696149290f, -0.0335083790f, 0.3310780823f, 0.1124000698f, 0.0585477389f, 0.0261478927f, 0.0829566494f, -0.0191670358f, -0.0958834440f, 0.0501038767f, 0.0600215830f, -0.2323609143f, 0.0709116235f, -0.1047057509f, -0.0056123384f, -0.0964197516f, -0.2379994988f, 0.4131582081f, 0.0943467841f, -0.2192940116f, -0.2186334133f, -0.1256192029f, -0.0585130155f, 0.1025523767f, -0.1673143655f, -0.2214418054f, 0.0702111647f, 0.0453249291f, 0.1720650345f, -0.0710252747f, 0.0700317249f, 0.1070904210f, -0.0184417795f, -0.0620766133f, -0.1306153983f, 0.1735474765f, -0.1209313348f, -0.2881127000f, 0.0588139966f, 0.0767069012f, -0.0711911023f, -0.0760125443f, 0.0455456227f, 0.1563876718f, -0.1778945476f, 0.0961150154f, 0.0194984265f, -0.1032994911f, -0.1728079766f, -0.0441371650f, 0.1123507544f, -0.3716445565f, 0.3826701939f, 0.0349239409f, -0.0719551891f, -0.1628716886f, -0.0408038087f, -0.1172924042f, 0.2129818201f, 0.1211411059f, 0.0861116946f, -0.7648304105f, 0.0027743580f, 0.0524109453f};
const float b2[] = {-0.0180126876f, -0.0248668641f, -0.0476823449f, 0.1405700296f, 0.0192222502f, -0.0043984880f, -0.0066968789f, 0.0622802861f, -0.0654987916f, -0.0161203369f, 0.0052720830f, 0.0087720370f, 0.0025083453f, -0.0288899988f, -0.0070294347f, 0.0639808625f, 0.0731115788f, -0.0245592725f, 0.0374395549f, 0.0271087214f, -0.0408923998f, -0.0600844249f, 0.0382360667f, -0.0820016116f, -0.0489948057f, -0.0128250774f, -0.0399534218f, -0.0436211191f, 0.0371234789f, 0.0664583743f, -0.0198507532f, 0.0196299404f, -0.0800480470f, 0.0026460255f, 0.0227086805f, -0.0262894537f, 0.0027205630f, -0.1062047035f, 0.0053292015f, -0.0665134117f, -0.0106591126f, -0.0433655381f, -0.0477394126f, 0.0305092819f, 0.0355101265f, 0.0753916278f, 0.0881137401f, 0.0485637560f, 0.0083464030f, -0.0474938378f, 0.0613786615f, 0.0087026833f, 0.0472562723f, -0.0133838244f, -0.0367668010f, 0.0644578040f, -0.0566208474f, 0.0708595067f, 0.0091117388f, -0.0337429829f, 0.0521415994f, -0.0407418460f, 0.0691088587f, 0.0136481337f};
const float W3[] = {-0.0274133589f, -0.0008179267f, 0.0018600076f, 0.0344379432f, 0.0012176412f, -0.3908542395f, -0.0337102786f, -0.1452052742f, 0.4431008399f, 0.0820575655f, -0.0920967907f, 0.0002934254f, 0.3970710933f, 0.1490299553f, -0.0033066503f, 0.2472988814f, 0.0012388338f, 0.1054933965f, -0.0679006651f, -0.3355972767f, 0.3069921136f, -0.0254384652f, -0.0019477567f, 0.1491709799f, 0.1189065948f, 0.0026544235f, -0.0397937894f, -0.0131372921f, -0.1900589317f, 0.0710911304f, 0.0912959874f, -0.1275190860f, 0.0027556641f, 0.3821855187f, -0.0016354371f, 0.0035657766f, -0.0641751811f, -0.0374225229f, -0.2292148024f, 0.1515908688f, -0.0025756769f, -0.0283237044f, -0.0003398683f, -0.1009154618f, 0.0679732263f, -0.0080100680f, -0.0054486790f, -0.2051503211f, 0.0016464496f, 0.4226540327f, -0.1511255205f, 0.0002244361f, 0.0405823030f, 0.0144487964f, 0.3175104260f, -0.0274382867f, 0.0137991654f, -0.0952412263f, -0.0225293450f, 0.0324751846f, -0.0022938566f, -0.0611354001f, 0.0030934177f, 0.0030515683f, 0.0312652849f, 0.0019619751f, -0.0029509866f, 0.0904953405f, 0.0058922758f, 0.2910228372f, -0.0647344738f, -0.0403361022f, -0.2203503251f, -0.1413803399f, -0.0057879896f, 0.0003943750f, -0.2361628115f, 0.0145822605f, 0.0072939023f, -0.1301122904f, 0.0007107393f, -0.0019367117f, -0.0150963003f, 0.1793498695f, -0.0494423807f, 0.0210927315f, 0.0023710704f, 0.0125179058f, -0.1464852840f, -0.0034042820f, -0.0188792106f, 0.0016297747f, 0.0218405407f, 0.0288812332f, 0.0017383939f, -0.0253782608f, 0.0043698880f, -0.1767280847f, -0.0053294702f, 0.0012886073f, -0.0154648982f, -0.1053590700f, 0.1758133620f, -0.0153784566f, 0.0022024126f, -0.0371454395f, 0.0041206838f, -0.0669097304f, 0.0295324139f, 0.0044070599f, 0.0018513637f, 0.3671402037f, 0.0082748989f, -0.3566994369f, -0.0090614660f, 0.0041132607f, 0.0327991024f, -0.1035239995f, -0.4365994334f, -0.0125413910f, -0.0657232329f, -0.0300948825f, -0.1086960807f, 0.1280158609f, -0.0088708242f, 0.1323363036f, 0.1179436594f, -0.0015585193f};
const float b3[] = {-0.0441772901f, 0.1041667983f};

#endif